28
-22
0
0
-27
8
-13
17
6
27
0
10
23
7
27
7
-18
-40
14
12
13
-4
20
16
-6
-15
-5
17
0
-5
8
20
-4
17
8
25
9
5
-23
-18
-4
-3
12
-3
1
4
8
19
8
-5
-14
-3
3
-12
7
-15
-1
21
8
-3
6
3
6
-10
-10
15
5
-1
-8
-39
22
-2
0
-15
11
-13
-11
-1
-14
3
1
9
4
-25
17
20
5
-6
-11
-7
-28
-17
-10
-12
13
-15
-2
0
-10
-11
21
14
-5
3
3
30
4
28
-10
24
-15
-19
12
-7
38
-17
-1
-10
1
11
8
1
-19
-17
-10
6
-2
20
-3
-19
5
2
-4
-4
18
3
-6
-27
-13
-22
7
-18
-7
-21
2
23
22
18
7
-7
-4
9
-3
-7
4
14
-13
24
-3
13
-7
-15
-12
15
-27
20
-11
9
-22
-9
-33
9
-7
-9
-4
-10
16
-10
14
-34
-1
19
-4
-7
-1
18
6
15
-16
-5
-9
-11
9
19
0
14
1
5
-4
8
13
-13
-19
2
0
-7
-8
10
15
0
-11
1
-6
3
5
2
27
7
12
27
0
6
-19
37
-2
31
17
11
17
-6
12
-16
16
-10
-3
25
-14
4
20
-12
-5
7
18
7
0
-15
0
-4
14
7
-14
10
-8
-14
-17
12
20
6
-35
-2
2
-9
-10
25
-26
-22
1
3
-14
17
-31
-9
-2
-9
10
-18
-1
11
-20
6
18
9
-11
1
-11
-19
5
-25
6
-3
-10
15
-15
-4
10
7
9
-4
-33
7
-30
-9
-8
11
-5
-13
7
14
-21
-3
-6
-17
-9
-6
5
6
5
-24
30
8
-21
7
-18
-1
-5
-7
-17
7
10
-8
29
9
2
-5
20
-3
5
20
13
16
-6
-2
-13
4
5
5
4
-19
-10
12
-8
7
-13
-5
-13
4
2
0
-23
11
-16
3
13
-5
2
-16
-22
-9
-6
-7
5
-16
-4
-24
38
2
18
1
12
-33
33
-19
-20
6
-9
13
2
12
-3
-2
1
8
-16
-16
15
4
15
-4
22
13
10
-18
8
16
4
3
-12
6
7
-25
14
-1
-7
-26
3
9
2
12
11
1
-9
7
-23
-1
-9
15
4
-3
-27
26
5
-12
7
6
-12
15
1
10
7
3
6
2
11
19
3
4
0
-8
23
5
3
-11
-13
-25
30
19
-3
-2
25
-8
19
-16
-11
4
-11
31
-6
16
0
32
11
-19
-4
10
-12
-4
2
16
21
14
-1
-8
-5
15
1
-16
-17
-3
1
7
-6
11
13
9
-23
-37
-17
-7
7
14
-18
30
8
5
-10
15
0
17
5
-10
-2
17
-9
1
-3
2
-11
-4
4
-23
-3
14
-36
18
-11
18
-1
-15
3
-10
7
-7
-14
3
5
19
8
21
-12
6
16
18
23
-13
-13
5
13
17
-4
15
6
0
22
4
2
-15
5
7
-6
-7
-1
19
-3
-1
18
-13
8
-2
1
17
-2
5
-28
28
1
25
-25
12
1
-6
-31
-27
4
19
3
-16
28
-18
5
17
-6
-28
16
-7
6
1
9
23
2
-4
-1
-18
16
10
3
19
-5
4
0
-6
2
11
-24
-27
4
25
-17
2
3
-6
3
-9
20
12
19
14
19
-1
23
6
0
4
16
-7
-4
5
-20
-16
-15
0
12
-11
1
-23
21
30
-13
10
19
25
-12
-12
0
-7
0
-1
-10
-18
11
-11
16
-14
-5
-9
1
-12
4
23
-5
13
0
-1
-18
12
16
2
-19
-14
-13
31
23
4
-20
16
-7
-9
16
-2
28
8
-27
23
-30
-3
16
5
1
20
-1
-14
-23
-7
1
6
-16
7
21
-1
1
27
-1
-11
-15
-9
-6
9
11
13
5
8
-18
6
-8
-14
-13
3
-22
-13
-15
-8
16
10
4
-8
-3
2
16
-11
8
-8
14
13
3
10
-28
-8
16
12
-1
-1
18
-5
0
14
-4
-28
-5
5
3
-7
-4
-9
-22
15
26
0
10
1
2
-11
-2
-21
-4
-21
-4
-13
19
-4
-1
12
36
10
0
6
-7
27
-14
-9
-18
-7
15
-27
31
-24
3
27
-13
-8
4
-10
-11
-13
11
28
-23
-12
18
14
5
-3
14
-20
-6
19
7
-27
7
2
1
5
-6
12
11
1
-4
7
-4
3
-11
2
-7
-9
-7
0
-4
4
4
15
-14
-2
-2
6
5
-14
-8
-25
-10
-6
-5
13
2
-9
-6
6
-10
9
-17
0
12
10
4
13
-12
-31
-5
14
-10
4
-17
-1
-10
-14
12
24
8
-9
10
13
-9
-21
-7
0
-9
11
-9
-13
14
-12
7
23
-4
-27
5
-1
-2
-11
5
30
7
4
24
-9
-7
14
19
-15
-10
-15
10
2
-23
7
-1
-18
9
33
4
11
25
-44
21
-13
-12
-5
13
-7
30
1
-6
-4
-12
8
-13
-22
-9
-17
15
-26
15
-4
-23
4
-14
-5
-10
1
17
-11
-4
-20
9
-1
27
24
-11
14
1
-5
12
-28
-6
10
-6
11
-7
-1
12
1
26
-5
-18
21
-7
-21
8
8
4
5
-10
8
22
5
-13
2
-5
0
2
-5
21
-20
-1
21
6
-32
1
-21
21
-3
19
-2
-6
1
-15
-21
18
-7
12
-8
-25
31
14
-14
-8
11
17
-13
-19
4
-18
-21
5
21
1
-32
-7
4
-2
-5
2
12
-3
-11
-2
8
-1
-15
-1
4
-16
-18
-1
2
23
3
-1
5
-25
24
5
-10
-19
4
-13
-26
-25
-14
3
32
26
-9
12
4
24
-9
-6
-31
28
-4
-30
5
-1
2
3
-3
-23
2
-10
22
3
-9
-17
-6
15
-4
-21
-4
-2
8
6
-2
24
23
-13
23
16
20
-25
12
6
1
-20
8
9
-16
1
-8
7
-6
-12
24
16
0
-16
9
0
10
26
39
6
-20
-14
12
19
-6
-13
1
9
12
-1
-15
33
1
-10
-6
-4
-7
2
10
-40
-20
-14
-3
27
16
14
7
10
11
10
13
9
23
6
-7
17
-1
8
14
21
-11
-20
25
-2
4
-19
17
-5
32
-9
18
5
-20
5
8
35
-15
-11
0
-10
-27
-9
-8
25
0
20
-29
14
-8
6
9
10
-14
-21
-7
-19
-29
0
-7
-7
7
-10
-7
-25
-2
-22
2
8
-4
6
5
-2
-6
-6
5
8
-6
-1
6
5
-9
-10
-3
13
6
-10
9
11
3
16
-14
-11
-11
-2
-28
21
-13
-3
10
18
-1
17
-21
-15
-21
3
8
-1
0
12
-6
16
-21
-15
5
6
9
22
-4
4
0
-10
19
-8
14
0
-26
-6
18
16
-2
9
-10
8
5
7
12
-1
-12
-16
-3
3
-14
-13
-13
6
4
11
31
-7
-40
14
16
10
-3
19
1
-10
-9
43
13
-8
17
-12
23
11
6
8
-2
4
9
-4
-14
0
-38
-9
-33
-2
-4
-21
-4
-7
14
-5
-6
31
-6
11
5
1
-14
-4
13
23
1
0
8
-3
-8
3
-9
23
-8
-3
-3
-2
3
-14
15
-16
-7
6
-4
-20
12
16
-22
1
-11
-17
-10
12
-18
8
4
-8
3
19
-9
-11
1
-1
14
27
21
9
14
-7
-14
13
2
17
-8
-25
-9
25
6
19
-12
-8
6
-9
6
5
12
-17
-8
-21
17
-12
-7
-11
-12
19
9
11
-2
7
-10
-8
-3
-3
-9
5
-21
-2
19
-12
-1
-21
-10
-18
10
-22
-3
-9
17
-1
18
-1
42
22
6
-22
-7
-8
-13
-12
-7
5
18
-4
12
4
-7
-3
-12
-20
0
8
7
10
-6
10
4
-5
-7
-4
-3
-7
13
22
6
10
10
-17
10
6
26
-21
7
17
21
-7
8
4
10
-32
28
4
1
-19
9
3
1
-17
-3
24
14
-33
2
17
29
-10
-5
22
-8
1
-24
-11
-3
11
-11
7
8
29
-33
3
-1
1
10
11
12
-1
-14
9
3
-9
22
-3
-6
15
-2
-11
-6
6
10
0
18
49
21
-4
16
-2
-18
-7
11
17
1
19
-12
15
-3
17
-1
-5
-24
-11
-10
12
-3
3
-11
9
8
13
-23
-9
20
20
2
-9
9
10
13
25
-17
1
-17
1
10
13
-21
-1
11
3
2
-2
-9
14
-5
-26
27
-26
-9
-8
-18
-10
1
-4
22
-23
-14
-2
20
-3
-21
-8
13
-15
-14
24
-20
-36
16
1
-6
-10
29
13
-2
10
23
17
4
-11
-12
-6
-2
3
7
-15
-20
-10
12
12
10
10
10
-16
-8
-1
7
0
-5
41
9
-5
5
-12
16
13
-18
-2
-13
-15
16
9
-27
-55
7
-14
-22
-19
-28
-21
20
0
-14
-1
3
3
-9
23
-24
-4
-10
-20
-6
-9
7
26
-12
-25
-15
7
-9
-9
11
-14
-20
-25
-29
-6
-43
9
-11
12
-13
-7
10
11
5
-5
-6
16
-29
-15
3
17
-8
-2
1
7
0
2
15
8
4
3
-17
-19
-2
-5
-3
-16
24
-10
-6
-1
-12
-28
-34
-6
-15
-24
-12
2
-1
-6
-14
15
-16
1
0
-17
-4
1
-28
-10
-17
-12
4
-1
9
-8
10
3
4
2
8
-11
-20
-1
5
-13
6
-4
29
-9
-18
30
-13
10
-32
-5
-15
8
20
-11
-11
-9
18
-14
-20
0
-2
-8
-21
-12
8
25
17
-24
4
0
7
15
10
8
24
-12
8
9
14
-11
-16
-9
10
-10
-19
-7
-1
11
-26
-12
-25
-22
13
11
-18
-7
-7
9
17
3
23
-3
21
14
-7
4
-4
14
-19
17
-20
5
-21
0
-11
21
-11
10
-1
28
3
25
-11
-3
-1
-4
-16
12
11
-5
17
-3
-10
29
-26
10
14
-15
-5
0
10
-11
6
-16
32
-11
-15
27
-16
-7
-21
16
32
26
9
-9
5
28
13
-2
-6
1
13
15
-32
10
20
5
37
-25
1
15
6
-38
-8
-6
-6
-3
-31
3
18
-19
9
-16
-20
6
10
0
13
-3
22
-23
10
-1
6
9
2
1
-6
-11
-1
-31
-10
18
9
6
-2
-12
10
-41
-6
2
-22
8
2
13
1
14
17
-17
-19
-9
-2
-11
10
14
11
-12
-29
1
-3
-25
25
15
-9
-6
1
5
14
9
-20
7
6
-16
12
-22
20
-16
9
-19
1
10
19
13
9
-29
-1
-1
13
-5
-21
22
-12
16
4
14
7
-8
-7
-11
25
-16
-3
3
-6
13
6
3
-1
-6
-8
-19
6
11
-23
-11
-1
9
-5
-13
4
-21
0
8
-8
-7
1
-11
14
-26
6
1
-18
4
-4
0
-2
-34
5
-6
2
4
5
2
-4
-3
-10
-11
25
-23
-12
3
-5
10
13
-3
0
-9
-10
30
7
20
-4
31
-8
-14
4
-32
-6
12
-12
8
7
-11
7
-6
-16
-32
-8
19
-2
-8
-5
-6
1
22
6
2
7
-26
12
15
-5
-9
36
0
-7
-10
5
20
-2
-14
8
-19
15
4
-17
0
4
11
11
7
-20
-9
-2
15
26
8
15
-23
-7
6
1
-10
12
-9
-13
-9
9
-4
5
16
43
12
11
-15
16
5
8
-10
16
19
-21
-13
-11
8
-8
-18
29
1
-8
22
1
11
4
-2
5
15
-13
11
-34
7
8
3
-5
-13
2
-15
26
16
-22
17
0
-8
8
-6
6
-8
-10
-4
5
-2
-5
9
11
5
8
16
-15
16
43
-4
-23
8
1
-4
19
-4
-8
6
-2
3
4
-11
2
0
11
-3
6
20
6
-21
10
-20
-12
11
-17
15
-10
-16
15
-2
19
-7
-7
-1
-18
-18
17
-6
11
-2
19
-12
-11
3
-4
27
13
-23
8
21
27
17
18
-1
12
-9
-3
-13
1
-16
-5
-16
9
11
-24
17
17
-5
-12
-6
15
17
-10
18
-8
3
-11
4
2
-34
18
1
3
-18
-7
6
27
3
5
-7
32
11
-16
3
-1
-4
2
17
-16
3
2
-2
-17
-15
-1
12
-10
-20
-12
22
9
-1
-8
3
16
-26
-8
-13
4
21
3
12
-6
24
20
-6
9
-7
24
11
10
1
-5
-24
16
28
-9
31
17
-4
12
-20
-14
-11
24
16
10
-5
23
15
-1
5
15
-8
32
20
-19
-5
12
-10
5
-44
-10
5
-5
11
-19
18
-32
28
-2
-18
-21
5
13
-12
-19
-2
4
5
16
-11
17
21
-4
12
-12
-10
-8
7
-5
-9
15
2
-9
-13
-5
-25
3
1
18
-4
12
-6
3
3
20
-29
0
-20
-3
-17
0
14
8
4
4
-5
-3
21
1
-5
-22
18
21
-3
-14
-7
0
-23
6
9
10
-7
16
-14
-25
-7
-6
-14
5
7
0
20
-8
-7
4
1
-18
12
-4
-2
15
-29
-25
3
-7
-14
-15
19
-2
-14
-12
-8
2
-18
-7
-4
-19
0
17
-14
11
-29
30
14
-19
-11
-11
-15
-14
-20
4
-3
-3
5
20
16
1
2
-10
-52
-6
10
4
10
11
15
0
16
-19
-17
11
10
2
7
-2
3
8
-6
-4
7
-5
-15
2
0
12
-35
3
-3
-8
-11
8
19
12
11
14
-21
24
-2
-10
23
-1
-11
-10
-37
-2
-18
7
-1
6
8
1
-5
-31
-11
2
10
14
-12
20
35
9
8
-14
-6
-10
2
8
22
1
-9
13
9
-1
-22
25
3
5
-4
23
-3
-4
0
15
-18
-2
-16
13
11
-2
-13
24
-17
-3
19
-6
3
35
4
17
-31
21
-6
0
22
0
-15
0
8
-1
-2
5
16
-7
5
-20
36
-5
10
16
5
-4
-12
6
6
-8
18
-26
-1
-7
-8
-18
9
32
6
23
-28
2
10
12
-1
-3
4
1
10
-20
11
-10
-15
22
-19
11
-13
-24
2
2
26
-23
13
-13
8
13
-10
9
-17
7
10
15
-17
-21
-10
-8
-43
1
-9
-8
-10
9
-1
6
4
6
7
-28
1
19
12
-11
12
-7
-1
35
2
24
8
-7
0
-2
7
21
4
-2
-8
-18
14
10
-29
17
-3
2
-15
-10
2
20
14
6
4
20
8
18
-17
-7
7
-14
-12
6
31
5
1
7
-16
-12
19
7
3
21
2
-15
1
-14
16
2
2
0
12
16
0
-6
0
18
28
19
27
-9
-3
7
-27
10
-6
-11
2
12
-1
15
20
-20
-20
-11
5
7
-7
5
3
10
5
-42
-7
-7
-8
-15
10
1
17
-8
-2
3
-24
21
1
5
7
4
9
10
3
9
5
-4
-10
-4
-8
-30
4
-9
-16
-2
22
-14
6
-22
7
6
-4
13
-1
6
-6
7
8
6
4
-6
18
-8
4
-11
-5
-4
-9
2
-1
-5
-3
5
4
4
15
-8
19
6
14
21
15
2
9
-9
-4
2
-7
-2
25
2
-24
5
7
4
-20
-1
-5
-6
-19
3
-4
14
0
2
17
5
-4
11
8
-11
-7
-13
-1
16
6
-13
-7
-9
-3
-1
-14
-3
6
20
4
25
-5
5
31
19
-3
17
-1
-2
-6
20
-3
13
21
11
-3
-11
-11
1
3
-4
-16
14
1
14
12
12
4
-10
13
13
3
22
6
1
1
-22
9
9
8
3
15
12
2
-10
1
-3
18
-3
-8
1
4
18
-10
-13
-9
17
6
-11
-4
1
12
20
-14
-35
31
-6
24
-8
8
1
-17
16
-9
-9
18
0
0
9
0
6
-8
-3
38
-2
-14
13
-17
1
10
-21
-2
-15
10
4
-9
-18
7
10
2
5
-1
18
17
2
6
0
9
-7
15
-7
13
9
-4
7
9
-7
-5
11
15
-10
-34
8
3
4
-24
-7
-6
-8
10
2
-16
29
-11
23
-20
4
30
20
5
-2
9
26
31
-8
-4
-15
0
-10
10
6
-28
-33
-8
-9
-7
-19
-5
-2
-17
8
1
-7
-18
6
-9
7
23
8
6
-24
-25
4
9
-13
-21
-15
-14
-15
29
29
-7
8
15
6
-22
7
-40
18
1
14
-23
6
21
7
-21
-2
-14
6
11
9
2
-22
9
-2
-2
-13
10
-6
39
-23
1
-12
-7
9
-21
-17
8
-31
7
-14
10
-10
0
5
13
-2
-15
42
6
3
-4
-2
-37
18
-21
-5
-13
-16
-22
-19
11
20
-29
1
12
18
-4
1
10
28
0
-18
-5
-1
10
-20
7
24
-14
-8
-24
-14
-33
27
2
-34
-6
-11
-33
-11
-36
-2
-4
-22
-5
-11
-4
-7
-2
-11
-8
-28
-2
20
22
-12
0
42
4
0
-22
4
3
-21
-8
10
1
-1
3
9
-12
15
-6
8
4
3
-4
-13
-3
11
-8
-1
-21
-7
24
-35
-18
-8
0
-6
-23
14
-9
-26
4
2
9
1
14
-2
-21
-14
19
3
13
-3
-7
2
-9
-25
29
-14
6
-7
-20
-2
-21
5
25
-1
-20
3
-11
-14
-7
-15
-20
29
1
-16
30
-20
0
-11
-3
-8
27
-3
-2
18
1
11
-20
-11
2
35
11
-16
-17
-18
-15
-22
-13
-12
-13
5
-13
28
1
17
12
-25
-12
-19
-10
1
-8
16
6
6
23
-11
-20
18
-5
18
8
-5
25
-9
6
-6
33
15
5
-7
8
-29
14
-20
-14
12
-3
26
14
10
0
-10
0
-28
5
-5
4
5
-11
-6
2
12
16
-4
6
0
-9
-6
-12
7
-1
14
-13
-13
9
-30
5
-36
16
4
3
-18
1
-6
-22
0
-12
1
10
-9
-15
-19
-1
6
-11
-16
-1
8
-21
-27
-13
-2
13
-2
3
-3
3
22
-9
-18
7
-8
25
13
6
6
-14
13
7
-10
-20
40
2
9
-1
-6
27
11
-23
-12
18
13
-2
-4
6
0
24
8
-26
-23
0
-18
10
15
-15
-30
3
-18
-24
6
-15
-9
1
-3
-3
-10
1
-16
-6
18
2
17
6
-20
29
4
9
8
-3
1
-9
-7
14
-29
-37
-2
1
-5
-7
6
-9
16
11
12
2
-6
-24
-22
5
18
13
-7
2
0
5
14
7
11
-25
4
-33
-9
-3
4
3
-9
28
-16
3
-8
27
-19
4
-25
3
1
-5
1
10
-7
27
-1
19
-12
23
0
-14
7
-5
30
13
-4
-12
10
-7
-5
19
-5
7
14
-2
13
-10
-13
-9
13
12
18
-12
2
10
11
-4
-10
9
-15
2
2
29
-10
30
8
-4
-11
-9
-11
-44
-17
25
6
7
23
-5
-15
0
-15
-18
12
20
-10
2
25
-2
21
-17
-10
4
5
23
18
-12
1
-8
-2
22
-17
17
8
-8
-21
-11
6
-18
-6
9
-18
-11
17
-6
-27
7
15
-10
1
-1
-10
-18
14
-3
-2
19
-3
-4
25
-3
4
-14
6
30
4
7
12
11
21
-13
-10
11
0
-8
-6
1
-30
7
11
2
27
10
-14
-25
13
-10
-7
11
7
18
3
18
9
-10
9
4
-17
5
20
15
10
-19
4
5
8
10
-35
-17
0
-2
-11
-5
14
12
41
22
-30
-13
1
-8
-5
17
11
-5
-17
15
5
1
-19
-13
14
31
19
8
-7
12
5
8
-11
-11
-18
-12
17
-2
-14
1
-7
-12
1
1
-4
-1
15
-8
-22
-12
-20
0
-1
-3
13
25
-12
-8
-21
-15
0
-11
-15
-3
-14
18
-1
-15
-21
-2
23
-9
6
2
0
6
-7
24
6
-13
5
8
-27
8
15
6
21
-30
-14
-16
17
15
27
17
-14
-4
-8
-6
-9
1
-6
5
1
-11
-1
-12
-5
-1
28
3
-6
4
21
14
5
5
20
-7
-1
-12
21
-2
9
8
-16
25
25
-19
-2
17
-12
-5
-11
-10
-21
-4
29
0
5
6
20
-5
-19
-12
9
9
-17
-6
-5
-26
-15
-8
-5
2
29
22
-10
6
-3
25
-24
22
-2
7
-1
11
-12
2
-6
3
37
-12
-7
-21
-5
24
12
-4
-32
-4
8
-2
4
-1
11
2
-4
-1
26
16
18
5
-22
-25
3
16
5
4
-32
-6
-17
7
3
24
17
-8
-12
10
29
-10
-14
12
3
4
14
-6
10
-18
-14
-8
-5
-8
-1
5
-11
4
3
18
-9
-1
-7
-7
22
-6
-8
-8
9
24
-8
14
-35
-2
-15
-16
-2
2
14
-18
-11
19
16
-20
14
10
2
-15
7
-33
0
-40
-28
-25
7
16
-15
22
-4
5
13
-18
-2
-1
30
-7
7
17
-3
3
5
3
-28
-19
22
1
9
8
13
-9
0
-16
-21
20
-20
12
21
-11
9
-11
-11
8
12
19
6
1
-14
28
12
15
-16
-14
0
-16
7
-8
18
41
-2
-9
21
5
-4
-1
4
4
-3
-35
21
-29
-18
16
9
-6
-23
6
18
-5
-16
15
18
6
-1
-12
15
-12
13
19
6
28
-22
16
3
40
2
-2
4
20
14
5
4
-4
1
-15
-10
-7
-2
-9
-10
-3
-16
4
3
14
17
10
11
-3
-2
4
-21
9
19
-6
-6
-8
11
4
2
-4
6
10
-6
16
3
-2
-16
-1
27
